<?xml version="1.0"?>
<opencv_storage>
<!-- Created using Computer Vision System Toolbox(tm) for MATLAB(R) -->
<!-- Version 8.6.0.267246 (R2015b) -->
<!-- Compatible with OpenCV 2.4 -->
<cascade>
  <stageType>BOOST</stageType>
  <featureType>HOG</featureType>
  <height>33</height>
  <width>32</width>
  <stageParams>
    <boostType>GAB</boostType>
    <minHitRate>9.9500000476837158e-01</minHitRate>
    <maxFalseAlarm>1.0000000149011612e-01</maxFalseAlarm>
    <weightTrimRate>9.4999999999999996e-01</weightTrimRate>
    <maxDepth>1</maxDepth>
    <maxWeakCount>100</maxWeakCount></stageParams>
  <featureParams>
    <maxCatCount>0</maxCatCount>
    <featSize>36</featSize></featureParams>
  <stageNum>6</stageNum>
  <stages>
    <!-- stage 0 -->
    <_>
      <maxWeakCount>5</maxWeakCount>
      <stageThreshold>-1.0433315038681030e+00</stageThreshold>
      <weakClassifiers>
        <_>
          <internalNodes>
            0 -1 31 7.5871184468269348e-02</internalNodes>
          <leafValues>
            -8.8102895021438599e-01 9.3308550119400024e-01</leafValues></_>
        <_>
          <internalNodes>
            0 -1 34 3.8546957075595856e-02</internalNodes>
          <leafValues>
            -9.7592532634735107e-01 6.8777567148208618e-01</leafValues></_>
        <_>
          <internalNodes>
            0 -1 0 4.0975756943225861e-02</internalNodes>
          <leafValues>
            -8.1876820325851440e-01 8.0823045969009399e-01</leafValues></_>
        <_>
          <internalNodes>
            0 -1 18 4.2341444641351700e-02</internalNodes>
          <leafValues>
            -6.4552098512649536e-01 7.7893656492233276e-01</leafValues></_>
        <_>
          <internalNodes>
            0 -1 8 3.1308919191360474e-02</internalNodes>
          <leafValues>
            -8.1024652719497681e-01 6.5329343080520630e-01</leafValues></_></weakClassifiers></_>
    <!-- stage 1 -->
    <_>
      <maxWeakCount>6</maxWeakCount>
      <stageThreshold>-5.3341275453567505e-01</stageThreshold>
      <weakClassifiers>
        <_>
          <internalNodes>
            0 -1 3 9.0313971042633057e-02</internalNodes>
          <leafValues>
            -8.9333331584930420e-01 8.2130587100982666e-01</leafValues></_>
        <_>
          <internalNodes>
            0 -1 38 5.4414492100477219e-02</internalNodes>
          <leafValues>
            -8.2214188575744629e-01 7.7136152982711792e-01</leafValues></_>
        <_>
          <internalNodes>
            0 -1 5 6.3589841127395630e-02</internalNodes>
          <leafValues>
            -6.2308180332183838e-01 8.7784999608993530e-01</leafValues></_>
        <_>
          <internalNodes>
            0 -1 15 1.2395487166941166e-02</internalNodes>
          <leafValues>
            6.7544615268707275e-01 -7.8976559638977051e-01</leafValues></_>
        <_>
          <internalNodes>
            0 -1 39 2.9304202646017075e-02</internalNodes>
          <leafValues>
            5.1827323436737061e-01 -8.9459800720214844e-01</leafValues></_>
        <_>
          <internalNodes>
            0 -1 36 1.0785982012748718e-02</internalNodes>
          <leafValues>
            6.1142486333847046e-01 -6.9310247898101807e-01</leafValues></_></weakClassifiers></_>
    <!-- stage 2 -->
    <_>
      <maxWeakCount>7</maxWeakCount>
      <stageThreshold>-7.0299673080444336e-01</stageThreshold>
      <weakClassifiers>
        <_>
          <internalNodes>
            0 -1 37 4.5568652451038361e-02</internalNodes>
          <leafValues>
            -9.0812718868255615e-01 6.6769230365753174e-01</leafValues></_>
        <_>
          <internalNodes>
            0 -1 34 7.2925195097923279e-02</internalNodes>
          <leafValues>
            -8.2036036252975464e-01 5.6341296434402466e-01</leafValues></_>
        <_>
          <internalNodes>
            0 -1 25 1.2266200035810471e-02</internalNodes>
          <leafValues>
            -9.1623228788375854e-01 3.9125329256057739e-01</leafValues></_>
        <_>
          <internalNodes>
            0 -1 2 9.6198648214340210e-02</internalNodes>
          <leafValues>
            -5.8205294609069824e-01 6.9339054822921753e-01</leafValues></_>
        <_>
          <internalNodes>
            0 -1 10 8.8501963764429092e-03</internalNodes>
          <leafValues>
            -9.1999751329421997e-01 5.1237326860427856e-01</leafValues></_>
        <_>
          <internalNodes>
            0 -1 4 4.7159783542156219e-02</internalNodes>
          <leafValues>
            -8.2217979431152344e-01 3.8721671700477600e-01</leafValues></_>
        <_>
          <internalNodes>
            0 -1 32 2.0135868340730667e-02</internalNodes>
          <leafValues>
            -9.7508889436721802e-01 3.1670048832893372e-01</leafValues></_></weakClassifiers></_>
    <!-- stage 3 -->
    <_>
      <maxWeakCount>10</maxWeakCount>
      <stageThreshold>-1.2209205627441406e+00</stageThreshold>
      <weakClassifiers>
        <_>
          <internalNodes>
            0 -1 23 1.0914005339145660e-01</internalNodes>
          <leafValues>
            -8.5765123367309570e-01 5.6231003999710083e-01</leafValues></_>
        <_>
          <internalNodes>
            0 -1 30 1.0892659425735474e-02</internalNodes>
          <leafValues>
            4.1554865241050720e-01 -7.7194535732269287e-01</leafValues></_>
        <_>
          <internalNodes>
            0 -1 12 1.2697959318757057e-02</internalNodes>
          <leafValues>
            -6.9565647840499878e-01 4.3065282702445984e-01</leafValues></_>
        <_>
          <internalNodes>
            0 -1 40 4.3961990624666214e-02</internalNodes>
          <leafValues>
            -6.7539113759994507e-01 4.7533652186393738e-01</leafValues></_>
        <_>
          <internalNodes>
            0 -1 19 3.5355489701032639e-02</internalNodes>
          <leafValues>
            -4.8488923907279968e-01 6.2495279312133789e-01</leafValues></_>
        <_>
          <internalNodes>
            0 -1 21 1.8976096063852310e-02</internalNodes>
          <leafValues>
            -6.3062608242034912e-01 4.2162066698074341e-01</leafValues></_>
        <_>
          <internalNodes>
            0 -1 20 7.6995166018605232e-03</internalNodes>
          <leafValues>
            4.4448471069335938e-01 -5.1833224296569824e-01</leafValues></_>
        <_>
          <internalNodes>
            0 -1 27 1.1809238232672215e-02</internalNodes>
          <leafValues>
            -6.9991558790206909e-01 3.3356511592864990e-01</leafValues></_>
        <_>
          <internalNodes>
            0 -1 42 4.0254700928926468e-02</internalNodes>
          <leafValues>
            -4.9518176913261414e-01 4.2864325642585754e-01</leafValues></_>
        <_>
          <internalNodes>
            0 -1 44 2.2617394104599953e-02</internalNodes>
          <leafValues>
            2.9856768250465393e-01 -7.4067127704620361e-01</leafValues></_></weakClassifiers></_>
    <!-- stage 4 -->
    <_>
      <maxWeakCount>11</maxWeakCount>
      <stageThreshold>-1.0197043418884277e+00</stageThreshold>
      <weakClassifiers>
        <_>
          <internalNodes>
            0 -1 16 8.4182307124137878e-02</internalNodes>
          <leafValues>
            -8.2867133617401123e-01 5.5485892295837402e-01</leafValues></_>
        <_>
          <internalNodes>
            0 -1 28 6.5628051757812500e-02</internalNodes>
          <leafValues>
            -7.3056292533874512e-01 4.3710997700691223e-01</leafValues></_>
        <_>
          <internalNodes>
            0 -1 41 4.4750731438398361e-02</internalNodes>
          <leafValues>
            -8.2610911130905151e-01 3.7070351839065552e-01</leafValues></_>
        <_>
          <internalNodes>
            0 -1 24 5.0885686650872231e-03</internalNodes>
          <leafValues>
            -9.7969335317611694e-01 2.3637087643146515e-01</leafValues></_>
        <_>
          <internalNodes>
            0 -1 13 5.6490059942007065e-02</internalNodes>
          <leafValues>
            -6.5512359142303467e-01 3.9612483978271484e-01</leafValues></_>
        <_>
          <internalNodes>
            0 -1 26 2.1682552993297577e-02</internalNodes>
          <leafValues>
            -7.7488160133361816e-01 3.0534738302230835e-01</leafValues></_>
        <_>
          <internalNodes>
            0 -1 1 1.5527989715337753e-02</internalNodes>
          <leafValues>
            -7.4314719438552856e-01 2.6961836218833923e-01</leafValues></_>
        <_>
          <internalNodes>
            0 -1 29 9.0320976451039314e-03</internalNodes>
          <leafValues>
            -8.8553518056869507e-01 1.9520598649978638e-01</leafValues></_>
        <_>
          <internalNodes>
            0 -1 14 9.5963422209024429e-03</internalNodes>
          <leafValues>
            3.5430863499641418e-01 -6.7352867126464844e-01</leafValues></_>
        <_>
          <internalNodes>
            0 -1 35 1.9996250048279762e-02</internalNodes>
          <leafValues>
            -9.0661078691482544e-01 1.9859457015991211e-01</leafValues></_>
        <_>
          <internalNodes>
            0 -1 23 3.9694130420684814e-02</internalNodes>
          <leafValues>
            -6.7018628120422363e-01 2.9234153032302856e-01</leafValues></_></weakClassifiers></_>
    <!-- stage 5 -->
    <_>
      <maxWeakCount>11</maxWeakCount>
      <stageThreshold>-5.3314071893692017e-01</stageThreshold>
      <weakClassifiers>
        <_>
          <internalNodes>
            0 -1 6 2.7624521404504776e-02</internalNodes>
          <leafValues>
            -5.5660378932952881e-01 7.6056337356567383e-01</leafValues></_>
        <_>
          <internalNodes>
            0 -1 17 1.2899839878082275e-01</internalNodes>
          <leafValues>
            -5.0837218761444092e-01 7.4447178840637207e-01</leafValues></_>
        <_>
          <internalNodes>
            0 -1 11 1.3251712545752525e-02</internalNodes>
          <leafValues>
            -8.2363450527191162e-01 4.1517022252082825e-01</leafValues></_>
        <_>
          <internalNodes>
            0 -1 4 5.8857418596744537e-02</internalNodes>
          <leafValues>
            -7.7878218889236450e-01 3.3519259095191956e-01</leafValues></_>
        <_>
          <internalNodes>
            0 -1 0 3.4787308424711227e-02</internalNodes>
          <leafValues>
            -7.6546251773834229e-01 3.0114281177520752e-01</leafValues></_>
        <_>
          <internalNodes>
            0 -1 7 1.1729167774319649e-02</internalNodes>
          <leafValues>
            4.0263730287551880e-01 -5.4373645782470703e-01</leafValues></_>
        <_>
          <internalNodes>
            0 -1 38 7.4564158916473389e-02</internalNodes>
          <leafValues>
            -4.7294721007347107e-01 4.6194624900817871e-01</leafValues></_>
        <_>
          <internalNodes>
            0 -1 9 4.9044303596019745e-02</internalNodes>
          <leafValues>
            -3.1422856450080872e-01 6.7130327224731445e-01</leafValues></_>
        <_>
          <internalNodes>
            0 -1 22 7.3259607888758183e-03</internalNodes>
          <leafValues>
            -7.9024678468704224e-01 3.2136702537536621e-01</leafValues></_>
        <_>
          <internalNodes>
            0 -1 33 2.4943266063928604e-02</internalNodes>
          <leafValues>
            -4.6399295330047607e-01 3.8454085588455200e-01</leafValues></_>
        <_>
          <internalNodes>
            0 -1 43 2.6765203103423119e-02</internalNodes>
          <leafValues>
            2.7224722504615784e-01 -8.3457571268081665e-01</leafValues></_></weakClassifiers></_></stages>
  <features>
    <_>
      <rect>
        0 4 8 8 1</rect></_>
    <_>
      <rect>
        0 4 8 8 23</rect></_>
    <_>
      <rect>
        0 4 8 8 35</rect></_>
    <_>
      <rect>
        0 12 8 8 17</rect></_>
    <_>
      <rect>
        0 16 8 8 24</rect></_>
    <_>
      <rect>
        4 0 8 8 1</rect></_>
    <_>
      <rect>
        4 0 8 8 23</rect></_>
    <_>
      <rect>
        4 4 8 8 8</rect></_>
    <_>
      <rect>
        4 4 8 8 24</rect></_>
    <_>
      <rect>
        4 8 8 8 6</rect></_>
    <_>
      <rect>
        4 8 8 8 12</rect></_>
    <_>
      <rect>
        4 16 8 8 1</rect></_>
    <_>
      <rect>
        4 16 8 8 3</rect></_>
    <_>
      <rect>
        4 16 8 8 24</rect></_>
    <_>
      <rect>
        4 16 8 8 27</rect></_>
    <_>
      <rect>
        8 0 8 8 8</rect></_>
    <_>
      <rect>
        8 4 8 8 35</rect></_>
    <_>
      <rect>
        8 12 8 8 8</rect></_>
    <_>
      <rect>
        8 12 8 8 9</rect></_>
    <_>
      <rect>
        8 12 8 8 16</rect></_>
    <_>
      <rect>
        12 0 8 8 6</rect></_>
    <_>
      <rect>
        12 0 8 8 19</rect></_>
    <_>
      <rect>
        12 8 8 8 12</rect></_>
    <_>
      <rect>
        12 12 8 8 8</rect></_>
    <_>
      <rect>
        12 12 8 8 12</rect></_>
    <_>
      <rect>
        12 16 8 8 6</rect></_>
    <_>
      <rect>
        12 16 8 8 9</rect></_>
    <_>
      <rect>
        12 16 8 8 21</rect></_>
    <_>
      <rect>
        12 16 8 8 28</rect></_>
    <_>
      <rect>
        16 0 8 8 25</rect></_>
    <_>
      <rect>
        16 16 8 8 26</rect></_>
    <_>
      <rect>
        16 16 8 8 28</rect></_>
    <_>
      <rect>
        0 0 8 16 1</rect></_>
    <_>
      <rect>
        0 0 8 16 12</rect></_>
    <_>
      <rect>
        0 0 8 16 24</rect></_>
    <_>
      <rect>
        4 0 8 16 1</rect></_>
    <_>
      <rect>
        12 0 8 16 33</rect></_>
    <_>
      <rect>
        16 0 8 16 15</rect></_>
    <_>
      <rect>
        16 0 8 16 28</rect></_>
    <_>
      <rect>
        16 0 8 16 31</rect></_>
    <_>
      <rect>
        0 0 16 8 15</rect></_>
    <_>
      <rect>
        0 4 16 8 26</rect></_>
    <_>
      <rect>
        0 12 16 8 6</rect></_>
    <_>
      <rect>
        0 12 16 8 30</rect></_>
    <_>
      <rect>
        0 16 16 8 26</rect></_></features></cascade>
</opencv_storage>
